svm_type c_svc
kernel_type polynomial
degree 3
gamma 1
coef0 1
nr_class 2
total_sv 6
rho -16.7546
label 1 -1
nr_sv 1 5
SV
0.01587092429954664 1:-5.55979 2:-3.81674 
-0.01383753634779977 1:-5.7757 2:-3.9936 
-5.472953828919661e-05 1:-1.04232 2:-7.57831 
-0.0003723237751243923 1:-6.82815 2:-1.7596 
-0.0006672443421788746 1:-0.0414712 2:-8.23666 
-0.0009390902961544112 1:-0.317553 2:7.5203 
