svm_type c_svc
kernel_type polynomial
degree 1
gamma 1
coef0 1
nr_class 2
total_sv 314
rho -1.61454
label 1 -1
nr_sv 157 157
SV
0.25 1:-1.28673 2:-2.95123 
0.25 1:-1.07082 2:0.64967 
0.25 1:-1.16829 2:-1.45119 
0.25 1:-3.42144 2:1.75773 
0.25 1:-1.41266 2:-1.25013 
0.25 1:-1.7145 2:-0.704225 
0.25 1:-1.53692 2:1.98354 
0.25 1:-3.20845 2:1.1228 
0.25 1:-1.41263 2:-0.187636 
0.25 1:-2.69504 2:-3.39243 
0.25 1:-1.79902 2:-4.16391 
0.25 1:-6.10316 2:-0.570226 
0.25 1:-4.04184 2:-0.725273 
0.25 1:-1.97723 2:0.547706 
0.25 1:-2.8393 2:-1.36813 
0.25 1:-2.82812 2:3.63502 
0.25 1:-2.38467 2:4.58016 
0.25 1:-1.56955 2:-0.46984 
0.25 1:-2.20896 2:4.04169 
0.25 1:-1.63262 2:1.27153 
0.25 1:-1.54487 2:1.08477 
0.25 1:-1.91685 2:-0.954194 
0.25 1:-2.46518 2:1.08152 
0.25 1:-1.10979 2:-0.0786553 
0.25 1:-1.94086 2:4.65271 
0.25 1:-4.20189 2:1.23906 
0.25 1:-2.97849 2:-1.28234 
0.25 1:-1.04678 2:1.77138 
0.25 1:-4.17894 2:-1.87397 
0.25 1:-1.83424 2:0.496744 
0.25 1:-3.0393 2:1.96379 
0.25 1:-2.18903 2:1.34674 
0.25 1:-2.19409 2:0.479257 
0.25 1:-3.31198 2:-1.13493 
0.25 1:-1.52167 2:-0.816988 
0.25 1:-2.56413 2:3.58611 
0.25 1:-1.21555 2:2.22371 
0.25 1:-3.42672 2:-0.435295 
0.25 1:-1.37675 2:4.22736 
0.25 1:-2.15264 2:3.59499 
0.06736262639982758 1:-1.03598 2:-1.30114 
0.25 1:-2.63841 2:-1.18189 
0.25 1:-1.09503 2:0.307344 
0.25 1:-1.84068 2:-2.47834 
0.25 1:-4.17066 2:-2.1884 
0.25 1:-2.0941 2:1.78098 
0.25 1:-4.488 2:0.630627 
0.25 1:-1.25988 2:3.85903 
0.25 1:-2.39138 2:0.501324 
0.25 1:-1.21545 2:2.41051 
0.25 1:-1.22083 2:0.899825 
0.25 1:-2.31012 2:1.55646 
0.206649225034237 1:-0.934131 2:4.45961 
0.25 1:-1.32979 2:1.55211 
0.25 1:-2.55606 2:-1.32444 
0.25 1:-1.3365 2:-0.507754 
0.25 1:-1.46193 2:-2.65495 
0.25 1:-1.47871 2:-2.11452 
0.25 1:-1.30924 2:0.20383 
0.25 1:-1.59869 2:1.2068 
0.25 1:-2.42963 2:-1.02869 
0.25 1:-2.76146 2:-0.547952 
0.25 1:-1.89991 2:0.0126939 
0.25 1:-3.9952 2:-2.79169 
0.25 1:-1.54814 2:1.95497 
0.25 1:-1.90182 2:1.11547 
0.25 1:-4.19803 2:1.45586 
0.25 1:-1.44624 2:-0.187731 
0.25 1:-1.89599 2:-2.89327 
0.25 1:-2.86724 2:-0.676502 
0.25 1:-1.47927 2:2.94534 
0.25 1:-1.33722 2:-4.35331 
0.25 1:-1.35752 2:-1.07386 
0.25 1:-1.28218 2:4.02398 
0.25 1:-1.68557 2:0.506852 
0.25 1:-1.8712 2:-0.694787 
0.25 1:-1.14574 2:-1.28858 
0.25 1:-1.87155 2:1.7026 
0.25 1:-2.66886 2:3.63318 
0.25 1:-3.39719 2:-0.430904 
0.25 1:-3.98866 2:-2.86794 
0.25 1:-2.63697 2:-0.0101014 
0.25 1:-5.0441 2:-1.08251 
0.25 1:-1.25435 2:-2.06978 
0.25 1:-1.16074 2:3.81665 
0.25 1:-1.83608 2:-3.63779 
0.25 1:-2.90096 2:0.201965 
0.25 1:-3.2303 2:-3.28481 
0.25 1:-2.50274 2:-2.46425 
0.25 1:-1.45541 2:-1.54754 
0.25 1:-2.39692 2:-1.64774 
0.25 1:-5.32944 2:-0.946996 
0.25 1:-2.27423 2:-2.21605 
0.25 1:-2.55255 2:-1.77524 
0.25 1:-3.35099 2:2.06557 
0.25 1:-3.09623 2:2.47108 
0.25 1:-1.60585 2:0.619696 
0.25 1:-1.34151 2:-0.105856 
0.25 1:-1.40967 2:-0.448166 
0.25 1:-2.10452 2:-0.655027 
0.25 1:-1.40363 2:1.23214 
0.25 1:-5.30074 2:2.94826 
0.25 1:-2.12313 2:-1.3652 
0.25 1:-3.279 2:-1.88152 
0.25 1:-0.999454 2:1.51129 
0.25 1:-1.85434 2:0.661737 
0.25 1:-3.22758 2:-2.23444 
0.25 1:-1.14089 2:-2.80255 
0.25 1:-1.22116 2:1.43171 
0.25 1:-1.07239 2:-0.451028 
0.25 1:-1.22185 2:-0.931619 
0.25 1:-3.45518 2:1.76241 
0.25 1:-1.19739 2:1.21397 
0.25 1:-1.16248 2:-1.10342 
0.25 1:-2.16338 2:-2.44912 
0.25 1:-2.03097 2:-0.500754 
0.25 1:-2.53679 2:-3.27181 
0.25 1:-1.73916 2:-2.88971 
0.25 1:-2.63442 2:4.14486 
0.25 1:-2.61011 2:1.30608 
0.25 1:-5.55979 2:-3.81674 
0.25 1:-2.67243 2:0.617036 
0.25 1:-2.3237 2:-0.534779 
0.25 1:-2.69558 2:-0.0448929 
0.25 1:-1.81373 2:2.59108 
0.25 1:-4.05389 2:-1.00343 
0.25 1:-1.52398 2:0.389079 
0.25 1:-5.54856 2:1.27066 
0.25 1:-1.78315 2:4.36673 
0.25 1:-1.33636 2:2.21253 
0.25 1:-2.80979 2:-0.82098 
0.25 1:-2.14841 2:-0.280331 
0.25 1:-1.87681 2:-3.10289 
0.25 1:-4.33747 2:-4.1668 
0.25 1:-1.66174 2:2.07709 
0.25 1:-1.82108 2:0.492434 
0.25 1:-2.66898 2:3.26051 
0.25 1:-2.06065 2:-0.14021 
0.25 1:-1.92538 2:0.0201982 
0.25 1:-1.00194 2:0.72368 
0.25 1:-2.47231 2:-1.03883 
0.25 1:-1.89013 2:-3.88875 
0.25 1:-3.94682 2:-3.92211 
0.25 1:-2.47987 2:-1.16742 
0.25 1:-1.54406 2:3.99519 
0.25 1:-1.48978 2:-2.72904 
0.25 1:-1.69787 2:-0.515751 
0.25 1:-1.90422 2:0.822099 
0.25 1:-1.8597 2:-0.356329 
0.25 1:-1.22757 2:1.29623 
0.25 1:-3.20374 2:-3.53878 
0.25 1:-1.37087 2:-1.6461 
0.25 1:-1.52932 2:1.40272 
0.25 1:-1.87412 2:3.16779 
0.25 1:-4.21861 2:0.3901 
0.25 1:-1.31112 2:-0.317183 
0.25 1:-1.82788 2:3.99897 
-0.25 1:-3.68806 2:-7.39723 
-0.25 1:-4.06651 2:-11.5833 
-0.25 1:-1.93189 2:-12.0089 
-0.25 1:-2.88162 2:10.6339 
-0.25 1:-2.36253 2:-7.7391 
-0.25 1:-3.7967 2:5.88843 
-0.25 1:-1.27493 2:-7.68968 
-0.25 1:-3.868 2:9.19547 
-0.25 1:-3.56494 2:9.64263 
-0.25 1:-2.07665 2:-10.5365 
-0.25 1:-2.19048 2:11.2271 
-0.25 1:-2.30356 2:12.28 
-0.25 1:-4.04396 2:9.2051 
-0.25 1:-2.03232 2:-11.7056 
-0.25 1:-1.66763 2:7.73392 
-0.25 1:-2.19442 2:11.6204 
-0.25 1:-1.81941 2:10.0453 
-0.25 1:-0.498145 2:11.3206 
-0.25 1:-3.73162 2:-11.7667 
-0.25 1:-4.22213 2:-11.9464 
-0.25 1:-2.90709 2:10.2583 
-0.25 1:-2.94754 2:10.5015 
-0.25 1:-2.78322 2:6.86097 
-0.25 1:-2.7635 2:-12.0346 
-0.25 1:-1.80553 2:-12.2236 
-0.25 1:-2.82491 2:-7.95236 
-0.25 1:-4.01752 2:-9.19693 
-0.25 1:-3.77453 2:7.80539 
-0.25 1:-2.15721 2:-11.1726 
-0.25 1:-2.65548 2:7.84237 
-0.25 1:-0.948434 2:10.6698 
-0.25 1:-3.36941 2:7.64693 
-0.25 1:-3.40631 2:8.43075 
-0.25 1:-2.6198 2:-10.4163 
-0.25 1:-2.48265 2:-10.08 
-0.25 1:-0.359502 2:-8.39719 
-0.25 1:-3.21523 2:12.3056 
-0.25 1:-1.58629 2:11.7612 
-0.25 1:-3.86686 2:5.89468 
-0.25 1:-3.44896 2:9.3792 
-0.25 1:-3.32563 2:10.2207 
-0.25 1:-0.826818 2:8.28981 
-0.25 1:-1.18964 2:9.43117 
-0.25 1:-2.92606 2:-6.64113 
-0.25 1:-1.0525 2:10.054 
-0.25 1:-4.25612 2:-7.12389 
-0.25 1:-2.42439 2:-10.6262 
-0.25 1:-3.00621 2:-7.59049 
-0.25 1:-2.81872 2:-10.7191 
-0.25 1:-2.02906 2:11.8124 
-0.25 1:-1.0622 2:10.582 
-0.25 1:-3.88125 2:-10.1216 
-0.25 1:-3.43094 2:10.0147 
-0.25 1:-2.14849 2:12.5801 
-0.25 1:-0.738243 2:-10.4618 
-0.25 1:-2.56433 2:10.2766 
-0.25 1:-0.97526 2:8.6628 
-0.25 1:-2.3029 2:11.8472 
-0.25 1:-2.33211 2:-10.8263 
-0.25 1:-2.90354 2:11.1419 
-0.25 1:-1.43683 2:-12.0195 
-0.25 1:-1.8413 2:-10.1213 
-0.25 1:-1.14311 2:-12.0189 
-0.02401185143406497 1:-4.13247 2:9.9194 
-0.25 1:-3.93389 2:10.9559 
-0.25 1:-2.59289 2:-9.15133 
-0.25 1:-0.263188 2:-9.93076 
-0.25 1:-0.171235 2:-11.4128 
-0.25 1:-0.946174 2:-9.44966 
-0.25 1:-1.04232 2:-7.57831 
-0.25 1:-1.85857 2:7.50504 
-0.25 1:-3.57009 2:-9.16518 
-0.25 1:-3.38824 2:9.09862 
-0.25 1:-3.29158 2:-12.5428 
-0.25 1:-1.77684 2:8.99274 
-0.25 1:-1.89317 2:7.48092 
-0.25 1:-3.86389 2:-9.15207 
-0.25 1:-0.123819 2:-12.9609 
-0.25 1:-2.18554 2:-10.5819 
-0.25 1:-0.840934 2:10.6797 
-0.25 1:-3.66722 2:-8.89939 
-0.25 1:-1.94127 2:-12.1155 
-0.25 1:-0.0600892 2:12.4337 
-0.25 1:-1.1485 2:-12.9308 
-0.25 1:-1.04443 2:7.42523 
-0.25 1:-3.22626 2:12.0234 
-0.25 1:-0.172098 2:12.3352 
-0.25 1:-2.39681 2:8.95959 
-0.25 1:-0.45699 2:12.4434 
-0.25 1:-1.53355 2:-12.6049 
-0.25 1:-1.27772 2:-12.8739 
-0.25 1:-1.407 2:6.94131 
-0.25 1:-3.39362 2:9.14693 
-0.25 1:-2.79681 2:-8.21272 
-0.25 1:-0.170586 2:8.90065 
-0.25 1:-3.75518 2:-9.91238 
-0.25 1:-3.39284 2:-9.25493 
-0.25 1:-4.11298 2:-8.26658 
-0.25 1:-0.344016 2:-9.57187 
-0.25 1:-2.19963 2:10.3903 
-0.25 1:-1.54036 2:-8.77653 
-0.25 1:-0.446509 2:11.8745 
-0.25 1:-4.08057 2:7.66987 
-0.25 1:-1.75872 2:12.0254 
-0.25 1:-3.77148 2:-6.73698 
-0.25 1:-2.40974 2:11.9535 
-0.25 1:-3.18464 2:-10.587 
-0.25 1:-4.0591 2:-11.9146 
-0.25 1:-1.1498 2:10.4828 
-0.25 1:-2.64402 2:11.3408 
-0.25 1:-3.62482 2:-9.87882 
-0.25 1:-0.350143 2:10.2976 
-0.25 1:-4.39462 2:-9.00056 
-0.25 1:-1.41404 2:10.6905 
-0.25 1:-3.12703 2:7.52857 
-0.25 1:-1.34099 2:-8.02905 
-0.25 1:-1.1209 2:9.76487 
-0.25 1:-1.15865 2:-12.7032 
-0.25 1:-3.57181 2:-10.8744 
-0.25 1:-2.94343 2:-9.4155 
-0.25 1:-2.12916 2:-11.8597 
-0.25 1:-3.59476 2:8.52443 
-0.25 1:-1.17721 2:7.08624 
-0.25 1:-3.52675 2:10.0092 
-0.25 1:-3.44069 2:8.69729 
-0.25 1:-1.05551 2:-9.72249 
-0.25 1:-3.11878 2:-10.5368 
-0.25 1:-1.87606 2:-9.49762 
-0.25 1:-0.302108 2:7.9446 
-0.25 1:-0.451396 2:11.7363 
-0.25 1:-4.0908 2:8.05452 
-0.25 1:-0.0414712 2:-8.23666 
-0.25 1:-1.81226 2:12.7229 
-0.25 1:-1.28487 2:-7.60825 
-0.25 1:-3.43154 2:-11.8246 
-0.25 1:-0.0871039 2:11.5731 
-0.25 1:-0.0182532 2:12.2932 
-0.25 1:-3.12526 2:-10.7065 
-0.25 1:-0.400649 2:-9.76805 
-0.25 1:-0.317553 2:7.5203 
-0.25 1:-0.284449 2:-10.1816 
-0.25 1:-3.68389 2:-11.0146 
-0.25 1:-3.57186 2:-11.6747 
-0.25 1:-3.66942 2:8.94065 
-0.25 1:-3.12531 2:7.69644 
-0.25 1:-4.09446 2:7.02005 
-0.25 1:-2.36338 2:-10.9086 
-0.25 1:-3.4814 2:10.9471 
-0.25 1:-4.14504 2:8.73802 
-0.25 1:-2.97131 2:11.0396 
-0.25 1:-3.03286 2:-6.47008 
-0.25 1:-0.201072 2:-8.69508 
-0.25 1:-1.03485 2:-12.5858 
-0.25 1:-2.80111 2:-6.5946 
-0.25 1:-1.17947 2:7.54991 
-0.25 1:-1.50176 2:7.19324 
-0.25 1:-2.22925 2:-12.5976 
