svm_type c_svc
kernel_type polynomial
degree 5
gamma 1
coef0 1
nr_class 2
total_sv 7
rho -9.96916
label 1 -1
nr_sv 1 6
SV
1.174649464892549e-06 1:-5.55979 2:-3.81674 
-9.770492623245689e-07 1:-5.7757 2:-3.9936 
-2.642590373286811e-08 1:-6.23239 2:3.19755 
-2.110778887469695e-08 1:-6.82815 2:-1.7596 
-1.776309901328309e-08 1:-1.407 2:6.94131 
-5.474065909303937e-08 1:-0.0414712 2:-8.23666 
-7.756275185409306e-08 1:-0.317553 2:7.5203 
