svm_type c_svc
kernel_type polynomial
degree 2
gamma 1
coef0 1
nr_class 2
total_sv 4
rho -26.3819
label 1 -1
nr_sv 2 2
SV
0.02119214805766944 1:4.91066 2:5.78148 
0.3149678521943327 1:-5.55979 2:-3.81674 
-0.3210521325686043 1:-5.7757 2:-3.9936 
-0.01510786768339801 1:-1.407 2:6.94131 
